svm_type c_svc
kernel_type linear
nr_class 2
total_sv 59
rho 1.15362
label 3 1
probA -1.15262
probB -0.0658821
nr_sv 29 30
SV
1 1:0.97157005 2:-0.97794737 3:0.94857523 4:-0.99461574 5:-0.95702594 6:-0.97837843 7:-0.94285512 8:0.9642775 9:-0.98934095 10:-0.99242236 11:0.97811363 12:-0.91927853 
1 1:0.97277871 2:-0.97806074 3:0.94806864 4:-0.99459638 5:-0.95802437 6:-0.9787872 7:-0.95802437 8:0.9787872 9:-0.99184178 10:-0.87211675 11:0.97822884 12:-0.9270006 
1 1:0.97133886 2:-0.97792665 3:0.94235096 4:-0.99439338 5:-0.95685761 6:-0.97830994 7:-0.93828225 8:0.95977103 9:-0.99032018 10:-0.98900697 11:0.97784988 12:-0.95702269 
1 1:0.96916101 2:-0.97774503 3:0.75491655 4:-0.99238874 5:-0.95511818 6:-0.97760948 7:0.82119795 8:-0.84161612 9:-0.93554002 10:-0.99787426 11:0.97784988 12:0.96649296 
1 1:0.97239419 2:-0.97802372 3:0.94351096 4:-0.9944324 5:-0.95802437 6:-0.9787872 7:-0.95802437 8:0.9787872 9:-0.99186171 10:-0.84718091 11:0.97814254 12:0.9477455 
1 1:0.97269456 2:-0.97805256 3:0.9487877 4:-0.99462393 5:-0.95802437 6:-0.9787872 7:-0.95802437 8:0.9787872 9:-0.99182756 10:-0.88544861 11:0.97802641 12:0.96081873 
1 1:0.89482705 2:-0.97589685 3:0.94844719 4:-0.99461083 5:-0.95777002 6:-0.97868265 7:-0.95533288 8:0.97628816 9:-0.99019634 10:-0.98964847 11:0.97875539 12:0.96801365 
0.5136669308380623 1:0.863702 2:-0.97570395 3:0.44061847 4:-0.9918283 5:-0.94487581 6:-0.97374696 7:0.95431288 8:-0.99321878 9:-0.98982015 10:-0.99114166 11:0.97823315 12:0.92581073 
1 1:0.94058425 2:-0.97652134 3:0.94901796 4:-0.99463286 5:-0.95739211 6:-0.97852783 7:-0.95013445 8:0.97135168 9:-0.9829875 10:-0.99647073 11:0.97780694 12:-0.97425588 
1 1:0.96579073 2:-0.97750502 3:0.91079881 4:-0.99362225 5:-0.9561094 6:-0.97800703 7:-0.88996624 8:0.91108193 9:-0.99029478 10:-0.98914628 11:0.97235022 12:-0.94346027 
0.5225820598122043 1:-0.88399805 2:-0.97422532 3:-0.95694931 4:-0.9727198 5:-0.95675044 6:-0.9782664 7:-0.93476727 8:0.95628425 9:-0.98980205 10:-0.99120039 11:0.97019891 12:-0.94586367 
1 1:0.85526821 2:-0.97566543 3:0.75428616 4:-0.99238651 5:-0.95388919 6:-0.97712249 7:0.93776957 8:-0.9624813 9:-0.98956158 10:-0.99189629 11:0.97732749 12:0.95815988 
1 1:0.94959156 2:-0.9767679 3:0.92833182 4:-0.99399199 5:-0.95779427 6:-0.9786926 7:-0.95561266 8:0.97655004 9:-0.99120441 10:-0.97831101 11:0.97763175 12:-0.94253267 
1 1:-0.4135942 2:-0.97493541 3:0.94693934 4:-0.99455408 5:-0.95697546 6:-0.97835788 7:-0.94158724 8:0.96303192 9:-0.9908977 10:-0.984039 11:0.97824817 12:0.96666574 
1 1:-0.35251632 2:-0.97495632 3:0.92778851 4:-0.99397864 5:-0.95789018 6:-0.978732 7:-0.95666874 8:0.97753432 9:-0.98773537 10:-0.99459541 11:0.97758939 12:-0.16460643 
1 1:-0.85993907 2:-0.97437393 3:0.8596755 4:-0.99297518 5:-0.95787777 6:-0.9787269 7:-0.95653639 8:0.97741135 9:-0.98995135 10:-0.99068444 11:0.9774038 12:0.85953484 
0.7672222235330534 1:-0.98172373 2:-0.96862844 3:0.25378721 4:-0.99167584 5:-0.94279834 6:-0.97301666 7:0.95101104 8:-0.99410491 9:-0.99241624 10:0.96915932 11:0.97752015 12:0.98281111 
1 1:-0.60712977 2:-0.97483893 3:0.92764887 4:-0.99397523 5:-0.95773306 6:-0.97866748 7:-0.95489589 8:0.97587825 9:-0.99176123 10:-0.92281079 11:0.97680353 12:0.97925709 
1 1:-0.93050637 2:-0.97363363 3:0.94886645 4:-0.99462698 5:-0.9579656 6:-0.97876301 7:-0.95744694 8:0.97825507 9:-0.98992587 10:-0.99077784 11:0.97721512 12:0.97270846 
1 1:-0.96182271 2:-0.97234034 3:0.33895372 4:-0.99173934 5:-0.91954792 6:-0.96595716 7:0.79076001 8:-0.99701411 9:-0.99276678 10:0.98333896 11:0.97533591 12:-0.9664669 
1 1:-0.98656392 2:-0.96542357 3:0.75835819 4:-0.99240109 5:-0.92836153 6:-0.96840462 7:0.89864593 8:-0.99650309 9:-0.99261607 10:0.97909373 11:0.9787872 12:-0.89164809 
1 1:0.96642493 2:-0.97754688 3:0.94725432 4:-0.99456576 5:-0.95685761 6:-0.97830994 7:-0.93828225 8:0.95977103 9:-0.99001411 10:-0.99044391 11:0.9787872 12:0.97175369 
1 1:0.97056917 2:-0.97785974 3:0.66809801 4:-0.99214998 5:0.79555304 6:-0.8727833 7:-0.97746478 8:-0.99874828 9:-0.99133817 10:-0.97404244 11:0.9736918 12:0.97979364 
1 1:0.9044245 2:-0.97598042 3:0.90051591 4:-0.99345163 5:-0.95491671 6:-0.9775292 7:0.87492721 8:-0.8968894 9:-0.98809788 10:-0.99426272 11:0.9787872 12:-0.90650524 
0.9808292171114917 1:0.93862413 2:-0.9764767 3:0.94682406 4:-0.99454982 5:-0.95802437 6:-0.9787872 7:-0.95802437 8:0.9787872 9:-0.99299573 10:0.9874277 11:0.9787872 12:-0.65793985 
1 1:0.94568446 2:-0.97665158 3:0.94886098 4:-0.99462677 5:-0.95702594 6:-0.97837843 7:-0.94285512 8:0.9642775 9:-0.99186052 10:-0.84892643 11:0.96984717 12:0.98206403 
1 1:0.96806517 2:-0.97766202 3:0.92730028 4:-0.99396676 5:-0.95802437 6:-0.9787872 7:-0.95802437 8:0.9787872 9:-0.99046815 10:-0.98810071 11:0.96880799 12:0.97424467 
1 1:0.91466305 2:-0.97608924 3:0.9270122 4:-0.99395981 5:-0.95757218 6:-0.97860152 7:-0.95282867 8:0.97392559 9:-0.99116167 10:-0.97937329 11:0.97615643 12:0.9787872 
1 1:0.94529243 2:-0.97664076 3:0.94632779 4:-0.99453164 5:-0.95802437 6:-0.9787872 7:-0.95802437 8:0.9787872 9:-0.99194687 10:-0.30096268 11:0.97731681 12:0.96931794 
-0.3293086768880735 1:0.97170124 2:-0.97795926 3:0.94785801 4:-0.99458841 5:-0.95691964 6:-0.97833517 7:-0.94008659 8:0.96155366 9:0.88786026 10:-0.99826189 11:0.97473822 12:0.97350272 
-1 1:0.97476898 2:-0.97826802 3:0.94904801 4:-0.99463403 5:-0.95802437 6:-0.9787872 7:-0.95802437 8:0.9787872 9:-0.99040406 10:-0.9885144 11:0.97410564 12:0.9540559 
-1 1:0.97410179 2:-0.97819543 3:0.94939593 4:-0.99464762 5:-0.95802437 6:-0.9787872 7:-0.95802437 8:0.9787872 9:-0.99171623 10:-0.93667852 11:0.97390141 12:0.87359674 
-1 1:-0.94721257 2:-0.97314883 3:0.92503769 4:-0.99391316 5:-0.94791268 6:-0.97484626 7:0.95745374 8:-0.99104537 9:-0.99186444 10:-0.84298165 11:0.94010038 12:0.9619395 
-1 1:0.61747807 2:-0.97525942 3:0.94061231 4:-0.99433678 5:-0.95222832 6:-0.97647469 7:0.95376499 8:-0.98095804 9:-0.99071722 10:-0.98608773 11:0.74834146 12:-0.96325349 
-1 1:0.96144525 2:-0.97725196 3:-0.95375377 4:-0.97634844 5:-0.91523648 6:-0.96485217 7:0.63579217 8:-0.99718131 9:-0.98879828 10:-0.9934038 11:0.78028554 12:-0.9540559 
-1 1:0.96753458 2:-0.97762363 3:0.94366103 4:-0.99443752 5:-0.95708049 6:-0.97840065 7:-0.94413927 8:0.96553557 9:-0.99184695 10:-0.86646299 11:0.88501933 12:-0.93420084 
-1 1:0.96929873 2:-0.97775583 3:0.92053957 4:-0.99381314 5:0.7917723 6:-0.8974525 7:-0.97510574 8:-0.99868043 9:-0.99159127 10:-0.95749269 11:0.89311242 12:-0.9731007 
-1 1:0.87939464 2:-0.97578929 3:0.92896801 4:-0.9940078 5:-0.95739211 6:-0.97852783 7:-0.95013445 8:0.97135168 9:-0.93158264 10:-0.9978917 11:0.9770191 12:-0.94329721 
-1 1:0.96893106 2:-0.97772718 3:0.86625687 4:-0.99303616 5:-0.95179632 6:-0.97630813 7:0.9552327 8:-0.98303325 9:-0.98259311 10:-0.99654098 11:0.97402433 12:0.96447988 
-1 1:0.96949197 2:-0.97777114 3:0.90260047 4:-0.99348401 5:-0.95508871 6:-0.97759773 7:0.83238937 8:-0.85311465 9:-0.9922221 10:0.94512937 11:0.97390141 12:0.97734102 
-1 1:-0.71440236 2:-0.97473892 3:0.94836501 4:-0.99460768 5:-0.95626907 6:-0.97807146 7:-0.90772245 8:0.92909759 9:-0.98916673 10:-0.99277902 11:0.95480245 12:0.97487936 
-1 1:0.96426394 2:-0.97740977 3:0.94613366 4:-0.99452459 5:-0.95518057 6:-0.97763438 7:0.79068641 8:-0.81028808 9:-0.98790446 10:-0.99444764 11:0.69627622 12:0.96956032 
-1 1:-0.92347822 2:-0.97377125 3:0.93997119 4:-0.99431647 5:-0.95802437 6:-0.9787872 7:-0.95802437 8:0.9787872 9:-0.99202379 10:0.78032908 11:0.67422769 12:0.89958818 
-1 1:-0.97479883 2:-0.97070062 3:0.93857229 4:-0.99427312 5:-0.95701554 6:-0.97837419 7:-0.94260026 8:0.96402738 9:-0.97992369 10:-0.99689544 11:0.97205028 12:0.97158794 
-1 1:-0.96547027 2:-0.97201897 3:0.91001332 4:-0.99360819 5:-0.95664959 6:-0.97822548 7:-0.9308941 8:0.9524243 9:-0.99032266 10:-0.98899311 11:0.96522752 12:0.94627892 
-1 1:-0.90454705 2:-0.97403744 3:0.93798326 4:-0.99425526 5:-0.95590989 6:-0.97792667 7:-0.85012463 8:0.87048603 9:-0.98593945 10:-0.99565261 11:0.95863342 12:0.97700786 
-1 1:-0.9850319 2:-0.96673674 3:0.94853191 4:-0.99461408 5:-0.95616181 6:-0.97802817 7:-0.8966834 8:0.91790585 9:-0.99021747 10:-0.98954544 11:0.97172668 12:0.96933303 
-0.7598126779340824 1:-0.98075542 2:-0.96902947 3:0.94241908 4:-0.99439564 5:-0.95712625 6:-0.9784193 7:-0.94515377 8:0.96652678 9:-0.98414693 10:-0.99622313 11:0.96639711 12:0.97955897 
-0.001384141391787206 1:-0.99883014 2:0.98865885 3:0.8974134 4:-0.9934053 5:-0.95772379 6:-0.97866368 7:-0.95478422 8:0.97577334 9:-0.9913615 10:-0.97310266 11:0.94372777 12:0.97912867 
-1 1:0.91190011 2:-0.9760575 3:0.94938054 4:-0.99464702 5:-0.95769498 6:-0.97865185 7:-0.95443154 8:0.97544154 9:-0.99109849 10:-0.98075033 11:0.96913653 12:0.96722722 
-1 1:0.94895469 2:-0.97674781 3:0.93855989 4:-0.99427274 5:-0.95589752 6:-0.97792169 7:-0.84646362 8:0.86674919 9:-0.99191248 10:-0.70015096 11:0.96306864 12:0.74254528 
-1 1:0.95103093 2:-0.97681508 3:0.94814188 4:-0.99459917 5:-0.95717876 6:-0.97844071 7:-0.9462542 8:0.96759903 9:-0.99218711 10:0.93648743 11:0.9614447 12:-0.95860712 
-1 1:0.92732925 2:-0.97626392 3:0.94584882 4:-0.9945143 5:-0.95648939 6:-0.97816056 7:-0.923208 8:0.94472268 9:-0.99217224 10:0.93196184 11:0.96432107 12:-0.96669356 
-1 1:0.92387712 2:-0.97621085 3:0.82864825 4:-0.99274025 5:-0.95802437 6:-0.9787872 7:-0.95802437 8:0.9787872 9:-0.95779106 10:-0.99770124 11:0.96648103 12:-0.96602979 
-0.6937949350808679 1:0.79885791 2:-0.97548793 3:0.91306691 4:-0.99366388 5:-0.95802437 6:-0.9787872 7:-0.95802437 8:0.9787872 9:-0.99128665 10:-0.9758875 11:0.44807376 12:-0.8490159 
-1 1:0.95217255 2:-0.97685438 3:0.92883585 4:-0.9940045 5:-0.95713962 6:-0.97842475 7:-0.9454402 8:0.96680618 9:-0.98922639 10:-0.992662 11:0.96748995 12:0.61401013 
-1 1:0.94710116 2:-0.97669191 3:0.94114759 4:-0.99435397 5:-0.95564481 6:-0.97782016 7:-0.67110883 8:0.68738516 9:-0.98911748 10:-0.9928719 11:0.968553 12:-0.96359991 
-1 1:0.94740543 2:-0.97670083 3:0.9474406 4:-0.99457271 5:-0.95709322 6:-0.97840583 7:-0.94442689 8:0.96581685 9:-0.98263566 10:-0.99653369 11:0.96842393 12:-0.81690624 
-1 1:0.96416772 2:-0.97740401 3:0.94634337 4:-0.99453221 5:-0.95675044 6:-0.9782664 7:-0.93476727 8:0.95628425 9:-0.99078723 10:-0.98536789 11:0.96635258 12:0.96722871 
